<?xml version="1.0"?>
<opencv_storage>
<custodetector type_id="opencv-haar-classifier">
  <size> 24 72</size>
  <stages>
    <_>
      <trees>
        <_>
          <_>
            <feature>
              <rects>
                <_>
                  23 16 24 8 -1.</_>
                <_>
                  23 20 24 4 2.</_>
			   </rects>
              <tilted>0</tilted>
			 </feature>
            <threshold>-0.0481920093297958</threshold>
            <left_val>0.9142979979515076</left_val>
            <right_val>-0.4962410926818848</right_val></_></_>
        <_>
          <_>
            <feature>
              <rects>
                <_>
                  0 1 72 19 -1.</_>
                <_>
                  0 1 36 19 2.</_></rects>
              <tilted>0</tilted></feature>
            <threshold>0.0743424072861671</threshold>
            <left_val>0.4591530859470367</left_val>
            <right_val>-0.9360287189483643</right_val></_></_></trees>
      <stage_threshold>-0.0370880104601383</stage_threshold>
      <parent>-1</parent>
      <next>-1</next></_>
    <_>
      <trees>
        <_>
          <_>
            <feature>
              <rects>
                <_>
                  18 1 36 20 -1.</_>
                <_>
                  36 1 18 20 2.</_></rects>
              <tilted>0</tilted></feature>
            <threshold>0.0406781509518623</threshold>
            <left_val>0.5115118026733398</left_val>
            <right_val>-0.9420043826103210</right_val></_></_>
        <_>
          <_>
            <feature>
              <rects>
                <_>
                  43 0 18 24 -1.</_>
                <_>
                  43 6 18 12 2.</_></rects>
              <tilted>0</tilted></feature>
            <threshold>0.0589059181511402</threshold>
            <left_val>-0.4779942035675049</left_val>
            <right_val>0.7199550867080689</right_val></_></_>
        <_>
          <_>
            <feature>
              <rects>
                <_>
                  8 1 1 16 -1.</_>
                <_>
                  8 9 1 8 2.</_></rects>
              <tilted>0</tilted></feature>
            <threshold>3.4283081186003983e-004</threshold>
            <left_val>-0.6281011104583740</left_val>
            <right_val>0.5830755233764648</right_val></_></_></trees>
      <stage_threshold>-0.8369231820106506</stage_threshold>
      <parent>0</parent>
      <next>-1</next></_>
    <_>
      <trees>
        <_>
          <_>
            <feature>
              <rects>
                <_>
                  18 3 2 4 -1.</_>
                <_>
                  18 5 2 2 2.</_></rects>
              <tilted>0</tilted>
			  </feature>
            <threshold>8.2772347377613187e-004</threshold>
            <left_val>-0.5049105286598206</left_val>
            <right_val>0.7501764297485352</right_val></_></_>
        <_>
          <_>
            <feature>
              <rects>
                <_>
                  4 1 66 15 -1.</_>
                <_>
                  4 1 33 15 2.</_></rects>
              <tilted>0</tilted></feature>
            <threshold>-0.0950232371687889</threshold>
            <left_val>-0.8891527056694031</left_val>
            <right_val>0.3503142893314362</right_val></_></_>
        <_>
          <_>
            <feature>
              <rects>
                <_>
                  33 9 4 5 -1.</_>
                <_>
                  34 9 2 5 2.</_></rects>
              <tilted>0</tilted></feature>
            <threshold>1.2999629834666848e-003</threshold>
            <left_val>-0.4878228902816773</left_val>
            <right_val>0.7838206291198731</right_val></_></_>
        <_>
          <_>
            <feature>
              <rects>
                <_>
                  67 13 4 6 -1.</_>
                <_>
                  67 13 2 6 2.</_></rects>
              <tilted>1</tilted></feature>
            <threshold>8.3941435441374779e-003</threshold>
            <left_val>-0.0997953787446022</left_val>
            <right_val>0.6344941258430481</right_val></_></_>
        <_>
          <_>
            <feature>
              <rects>
                <_>
                  22 5 4 6 -1.</_>
                <_>
                  22 5 2 3 2.</_>
                <_>
                  24 8 2 3 2.</_></rects>
              <tilted>0</tilted></feature>
            <threshold>1.6652649501338601e-003</threshold>
            <left_val>-0.3472718894481659</left_val>
            <right_val>0.9321783781051636</right_val></_></_>
        <_>
          <_>
            <feature>
              <rects>
                <_>
                  67 13 4 6 -1.</_>
                <_>
                  67 13 2 6 2.</_></rects>
              <tilted>1</tilted></feature>
            <threshold>0.0165962092578411</threshold>
            <left_val>0.0883823409676552</left_val>
            <right_val>0.8027139902114868</right_val></_></_>
        <_>
          <_>
            <feature>
              <rects>
                <_>
                  15 10 4 1 -1.</_>
                <_>
                  16 10 2 1 2.</_></rects>
              <tilted>0</tilted></feature>
            <threshold>5.7820067740976810e-004</threshold>
            <left_val>-0.4189004004001617</left_val>
            <right_val>0.9240139722824097</right_val></_></_></trees>
      <stage_threshold>-0.1649173945188522</stage_threshold>
      <parent>1</parent>
      <next>-1</next></_>
    <_>
      <trees>
        <_>
          <_>
            <feature>
              <rects>
                <_>
                  17 16 19 8 -1.</_>
                <_>
                  17 20 19 4 2.</_></rects>
              <tilted>0</tilted></feature>
            <threshold>-0.0410370491445065</threshold>
            <left_val>0.7413707971572876</left_val>
            <right_val>-0.4338536858558655</right_val></_></_>
        <_>
          <_>
            <feature>
              <rects>
                <_>
                  35 22 4 1 -1.</_>
                <_>
                  35 22 2 1 2.</_></rects>
              <tilted>0</tilted></feature>
            <threshold>-1.7607079644221812e-004</threshold>
            <left_val>-0.8290184736251831</left_val>
            <right_val>0.2099633961915970</right_val></_></_>
        <_>
          <_>
            <feature>
              <rects>
                <_>
                  34 22 4 2 -1.</_>
                <_>
                  35 22 2 2 2.</_></rects>
              <tilted>0</tilted></feature>
            <threshold>1.6158999642357230e-004</threshold>
            <left_val>0.3141398131847382</left_val>
            <right_val>-0.9226738214492798</right_val></_></_>
        <_>
          <_>
            <feature>
              <rects>
                <_>
                  59 3 1 4 -1.</_>
                <_>
                  59 5 1 2 2.</_></rects>
              <tilted>0</tilted></feature>
            <threshold>4.6916751307435334e-004</threshold>
            <left_val>-0.2637659907341003</left_val>
            <right_val>0.3494595885276794</right_val></_></_>
        <_>
          <_>
            <feature>
              <rects>
                <_>
                  12 3 1 4 -1.</_>
                <_>
                  12 5 1 2 2.</_></rects>
              <tilted>0</tilted></feature>
            <threshold>3.6524989991448820e-004</threshold>
            <left_val>-0.4779109954833984</left_val>
            <right_val>0.5626757740974426</right_val></_></_>
        <_>
          <_>
            <feature>
              <rects>
                <_>
                  27 19 23 2 -1.</_>
                <_>
                  27 20 23 1 2.</_></rects>
              <tilted>0</tilted></feature>
            <threshold>5.0879199989140034e-003</threshold>
            <left_val>-0.3280610144138336</left_val>
            <right_val>0.8858153223991394</right_val></_></_></trees>
      <stage_threshold>-0.9794884920120239</stage_threshold>
      <parent>2</parent>
      <next>-1</next></_>
    <_>
      <trees>
        <_>
          <_>
            <feature>
              <rects>
                <_>
                  17 14 24 9 -1.</_>
                <_>
                  17 17 24 3 3.</_></rects>
              <tilted>0</tilted></feature>
            <threshold>0.0427679792046547</threshold>
            <left_val>-0.3573493063449860</left_val>
            <right_val>0.8943884968757629</right_val></_></_>
        <_>
          <_>
            <feature>
              <rects>
                <_>
                  36 22 4 2 -1.</_>
                <_>
                  37 22 2 2 2.</_></rects>
              <tilted>0</tilted></feature>
            <threshold>-2.6779918698593974e-004</threshold>
            <left_val>-0.7879691720008850</left_val>
            <right_val>0.2366082072257996</right_val></_></_>
        <_>
          <_>
            <feature>
              <rects>
                <_>
                  12 8 4 8 -1.</_>
                <_>
                  13 8 2 8 2.</_></rects>
              <tilted>0</tilted></feature>
            <threshold>2.3498230148106813e-003</threshold>
            <left_val>-0.3978495895862579</left_val>
            <right_val>0.7889878749847412</right_val></_></_>
        <_>
          <_>
            <feature>
              <rects>
                <_>
                  55 5 16 10 -1.</_>
                <_>
                  59 5 8 10 2.</_></rects>
              <tilted>0</tilted></feature>
            <threshold>0.0141509696841240</threshold>
            <left_val>-0.1726336032152176</left_val>
            <right_val>0.5681633949279785</right_val></_></_>
        <_>
          <_>
            <feature>
              <rects>
                <_>
                  23 4 6 12 -1.</_>
                <_>
                  25 4 2 12 3.</_></rects>
              <tilted>0</tilted></feature>
            <threshold>7.1609527803957462e-003</threshold>
            <left_val>-0.3996003866195679</left_val>
            <right_val>0.8024914264678955</right_val></_></_>
        <_>
          <_>
            <feature>
              <rects>
                <_>
                  68 4 3 10 -1.</_>
                <_>
                  68 4 3 5 2.</_></rects>
              <tilted>1</tilted></feature>
            <threshold>-8.3147187251597643e-004</threshold>
            <left_val>0.2645423114299774</left_val>
            <right_val>-0.4173335134983063</right_val></_></_>
        <_>
          <_>
            <feature>
              <rects>
                <_>
                  4 10 11 2 -1.</_>
                <_>
                  4 10 11 1 2.</_></rects>
              <tilted>1</tilted></feature>
            <threshold>1.1287640081718564e-003</threshold>
            <left_val>-0.5672718882560730</left_val>
            <right_val>0.6111475825309753</right_val></_></_></trees>
      <stage_threshold>-0.8970106840133667</stage_threshold>
      <parent>3</parent>
      <next>-1</next></_>
    <_>
      <trees>
        <_>
          <_>
            <feature>
              <rects>
                <_>
                  0 3 10 16 -1.</_>
                <_>
                  5 3 5 16 2.</_></rects>
              <tilted>0</tilted></feature>
            <threshold>0.0181777402758598</threshold>
            <left_val>-0.4416042864322662</left_val>
            <right_val>0.6708651185035706</right_val></_></_>
        <_>
          <_>
            <feature>
              <rects>
                <_>
                  34 2 21 3 -1.</_>
                <_>
                  41 2 7 3 3.</_></rects>
              <tilted>0</tilted></feature>
            <threshold>-3.6902020219713449e-003</threshold>
            <left_val>-0.7215992808341980</left_val>
            <right_val>0.1874383985996246</right_val></_></_>
        <_>
          <_>
            <feature>
              <rects>
                <_>
                  17 2 21 3 -1.</_>
                <_>
                  24 2 7 3 3.</_></rects>
              <tilted>0</tilted></feature>
            <threshold>4.2495350353419781e-003</threshold>
            <left_val>0.2332842946052551</left_val>
            <right_val>-1.0000029802322388</right_val></_></_>
        <_>
          <_>
            <feature>
              <rects>
                <_>
                  46 20 12 4 -1.</_>
                <_>
                  49 20 6 4 2.</_></rects>
              <tilted>0</tilted></feature>
            <threshold>-2.4192889686673880e-003</threshold>
            <left_val>-0.9076973795890808</left_val>
            <right_val>0.1066408976912499</right_val></_></_>
        <_>
          <_>
            <feature>
              <rects>
                <_>
                  19 0 15 6 -1.</_>
                <_>
                  24 0 5 6 3.</_></rects>
              <tilted>0</tilted></feature>
            <threshold>-3.8992760237306356e-003</threshold>
            <left_val>-0.7810071110725403</left_val>
            <right_val>0.3001222908496857</right_val></_></_></trees>
      <stage_threshold>-0.6952478289604187</stage_threshold>
      <parent>4</parent>
      <next>-1</next></_>
    <_>
      <trees>
        <_>
          <_>
            <feature>
              <rects>
                <_>
                  34 23 4 1 -1.</_>
                <_>
                  35 23 2 1 2.</_></rects>
              <tilted>0</tilted></feature>
            <threshold>-1.6183940169867128e-004</threshold>
            <left_val>-1.</left_val>
            <right_val>0.3445942103862763</right_val></_></_></trees>
      <stage_threshold>0.3445942103862763</stage_threshold>
      <parent>5</parent>
      <next>-1</next></_>
    <_>
      <trees>
        <_>
          <_>
            <feature>
              <rects>
                <_>
                  23 10 3 6 -1.</_>
                <_>
                  24 10 1 6 3.</_></rects>
              <tilted>0</tilted></feature>
            <threshold>1.1804510140791535e-003</threshold>
            <left_val>-0.3533698916435242</left_val>
            <right_val>0.8027182817459106</right_val></_></_>
        <_>
          <_>
            <feature>
              <rects>
                <_>
                  36 7 4 10 -1.</_>
                <_>
                  37 7 2 10 2.</_></rects>
              <tilted>0</tilted></feature>
            <threshold>-3.5102618858218193e-003</threshold>
            <left_val>0.8771420121192932</left_val>
            <right_val>-0.2042067050933838</right_val></_></_>
        <_>
          <_>
            <feature>
              <rects>
                <_>
                  33 7 6 10 -1.</_>
                <_>
                  35 7 2 10 3.</_></rects>
              <tilted>0</tilted></feature>
            <threshold>-5.9910840354859829e-003</threshold>
            <left_val>0.8872045874595642</left_val>
            <right_val>-0.4283387064933777</right_val></_></_>
        <_>
          <_>
            <feature>
              <rects>
                <_>
                  51 22 8 2 -1.</_>
                <_>
                  53 22 4 2 2.</_></rects>
              <tilted>0</tilted></feature>
            <threshold>-4.4416860328055918e-004</threshold>
            <left_val>-1.</left_val>
            <right_val>0.2777808010578156</right_val></_></_>
        <_>
          <_>
            <feature>
              <rects>
                <_>
                  10 10 6 4 -1.</_>
                <_>
                  12 10 2 4 3.</_></rects>
              <tilted>0</tilted></feature>
            <threshold>3.4330959897488356e-003</threshold>
            <left_val>-0.3899241983890533</left_val>
            <right_val>0.7717031836509705</right_val></_></_>
        <_>
          <_>
            <feature>
              <rects>
                <_>
                  43 22 6 2 -1.</_>
                <_>
                  45 22 2 2 3.</_></rects>
              <tilted>0</tilted></feature>
            <threshold>-9.6423068316653371e-004</threshold>
            <left_val>-1.</left_val>
            <right_val>0.1602804064750671</right_val></_></_>
        <_>
          <_>
            <feature>
              <rects>
                <_>
                  22 13 6 6 -1.</_>
                <_>
                  24 15 2 2 9.</_></rects>
              <tilted>0</tilted></feature>
            <threshold>-9.6550043672323227e-003</threshold>
            <left_val>0.8469102978706360</left_val>
            <right_val>-0.3663139939308167</right_val></_></_></trees>
      <stage_threshold>-0.2227437049150467</stage_threshold>
      <parent>6</parent>
      <next>-1</next></_>
    <_>
      <trees>
        <_>
          <_>
            <feature>
              <rects>
                <_>
                  17 13 1 10 -1.</_>
                <_>
                  17 18 1 5 2.</_></rects>
              <tilted>0</tilted></feature>
            <threshold>-2.6962440460920334e-003</threshold>
            <left_val>0.6852095127105713</left_val>
            <right_val>-0.3708991110324860</right_val></_></_>
        <_>
          <_>
            <feature>
              <rects>
                <_>
                  39 10 6 9 -1.</_>
                <_>
                  41 10 2 9 3.</_></rects>
              <tilted>0</tilted></feature>
            <threshold>-4.6913451515138149e-003</threshold>
            <left_val>0.6104707121849060</left_val>
            <right_val>-0.2128830999135971</right_val></_></_>
        <_>
          <_>
            <feature>
              <rects>
                <_>
                  27 10 6 9 -1.</_>
                <_>
                  29 10 2 9 3.</_></rects>
              <tilted>0</tilted></feature>
            <threshold>6.9763162173330784e-003</threshold>
            <left_val>-0.3491170108318329</left_val>
            <right_val>0.8071373105049133</right_val></_></_>
        <_>
          <_>
            <feature>
              <rects>
                <_>
                  42 0 12 4 -1.</_>
                <_>
                  46 0 4 4 3.</_></rects>
              <tilted>0</tilted></feature>
            <threshold>-4.6590180136263371e-003</threshold>
            <left_val>-1.</left_val>
            <right_val>0.2043325006961823</right_val></_></_>
        <_>
          <_>
            <feature>
              <rects>
                <_>
                  18 0 12 4 -1.</_>
                <_>
                  22 0 4 4 3.</_></rects>
              <tilted>0</tilted></feature>
            <threshold>2.2924239747226238e-003</threshold>
            <left_val>0.2342388927936554</left_val>
            <right_val>-0.9750534296035767</right_val></_></_>
        <_>
          <_>
            <feature>
              <rects>
                <_>
                  42 12 4 3 -1.</_>
                <_>
                  43 12 2 3 2.</_></rects>
              <tilted>0</tilted></feature>
            <threshold>-1.4493779744952917e-003</threshold>
            <left_val>0.6260942220687866</left_val>
            <right_val>-0.2955814898014069</right_val></_></_>
        <_>
          <_>
            <feature>
              <rects>
                <_>
                  29 13 3 4 -1.</_>
                <_>
                  28 14 3 2 2.</_></rects>
              <tilted>1</tilted></feature>
            <threshold>1.8387730233371258e-003</threshold>
            <left_val>-0.3811756968498230</left_val>
            <right_val>0.6753324270248413</right_val></_></_>
        <_>
          <_>
            <feature>
              <rects>
                <_>
                  41 21 8 2 -1.</_>
                <_>
                  43 21 4 2 2.</_></rects>
              <tilted>0</tilted></feature>
            <threshold>-3.7380561116151512e-004</threshold>
            <left_val>-0.9621921181678772</left_val>
            <right_val>0.1504818946123123</right_val></_></_>
        <_>
          <_>
            <feature>
              <rects>
                <_>
                  24 6 4 10 -1.</_>
                <_>
                  24 6 2 5 2.</_>
                <_>
                  26 11 2 5 2.</_></rects>
              <tilted>0</tilted></feature>
            <threshold>-1.3235959922894835e-003</threshold>
            <left_val>0.6729773283004761</left_val>
            <right_val>-0.3499813079833984</right_val></_></_></trees>
      <stage_threshold>-0.5472304821014404</stage_threshold>
      <parent>7</parent>
      <next>-1</next></_>
    <_>
      <trees>
        <_>
          <_>
            <feature>
              <rects>
                <_>
                  16 1 18 7 -1.</_>
                <_>
                  22 1 6 7 3.</_></rects>
              <tilted>0</tilted></feature>
            <threshold>-9.6122231334447861e-003</threshold>
            <left_val>-1.</left_val>
            <right_val>0.2515718936920166</right_val></_></_>
        <_>
          <_>
            <feature>
              <rects>
                <_>
                  60 0 2 8 -1.</_>
                <_>
                  60 4 2 4 2.</_></rects>
              <tilted>0</tilted></feature>
            <threshold>2.6574910152703524e-003</threshold>
            <left_val>-0.2969588041305542</left_val>
            <right_val>0.4680091142654419</right_val></_></_>
        <_>
          <_>
            <feature>
              <rects>
                <_>
                  20 10 3 6 -1.</_>
                <_>
                  21 10 1 6 3.</_></rects>
              <tilted>0</tilted></feature>
            <threshold>3.2868480775505304e-003</threshold>
            <left_val>-0.2215909957885742</left_val>
            <right_val>0.8561151027679443</right_val></_></_>
        <_>
          <_>
            <feature>
              <rects>
                <_>
                  35 8 16 8 -1.</_>
                <_>
                  35 12 16 4 2.</_></rects>
              <tilted>0</tilted></feature>
            <threshold>-0.0161741897463799</threshold>
            <left_val>-1.</left_val>
            <right_val>0.2471954971551895</right_val></_></_></trees>
      <stage_threshold>-0.0197823606431484</stage_threshold>
      <parent>8</parent>
      <next>-1</next></_>
    <_>
      <trees>
        <_>
          <_>
            <feature>
              <rects>
                <_>
                  19 1 21 12 -1.</_>
                <_>
                  26 5 7 4 9.</_></rects>
              <tilted>0</tilted></feature>
            <threshold>0.0464816614985466</threshold>
            <left_val>-0.3953194022178650</left_val>
            <right_val>0.5703635811805725</right_val></_></_>
        <_>
          <_>
            <feature>
              <rects>
                <_>
                  9 10 58 3 -1.</_>
                <_>
                  9 10 29 3 2.</_></rects>
              <tilted>0</tilted></feature>
            <threshold>0.0234917998313904</threshold>
            <left_val>0.1576500982046127</left_val>
            <right_val>-0.9249225854873657</right_val></_></_>
        <_>
          <_>
            <feature>
              <rects>
                <_>
                  8 1 36 6 -1.</_>
                <_>
                  20 1 12 6 3.</_></rects>
              <tilted>0</tilted></feature>
            <threshold>0.0140484599396586</threshold>
            <left_val>0.2782081961631775</left_val>
            <right_val>-0.9001644253730774</right_val></_></_></trees>
      <stage_threshold>-0.1721505969762802</stage_threshold>
      <parent>9</parent>
      <next>-1</next></_>
    <_>
      <trees>
        <_>
          <_>
            <feature>
              <rects>
                <_>
                  7 10 8 6 -1.</_>
                <_>
                  7 10 8 3 2.</_></rects>
              <tilted>1</tilted></feature>
            <threshold>0.0160342194139957</threshold>
            <left_val>-0.4197709858417511</left_val>
            <right_val>0.5402833819389343</right_val></_></_>
        <_>
          <_>
            <feature>
              <rects>
                <_>
                  57 22 3 2 -1.</_>
                <_>
                  58 22 1 2 3.</_></rects>
              <tilted>0</tilted></feature>
            <threshold>-9.5724331913515925e-005</threshold>
            <left_val>-0.6546599864959717</left_val>
            <right_val>0.1772944033145905</right_val></_></_>
        <_>
          <_>
            <feature>
              <rects>
                <_>
                  12 22 3 2 -1.</_>
                <_>
                  13 22 1 2 3.</_></rects>
              <tilted>0</tilted></feature>
            <threshold>1.0463489888934419e-004</threshold>
            <left_val>0.2103801071643829</left_val>
            <right_val>-0.9690552949905396</right_val></_></_>
        <_>
          <_>
            <feature>
              <rects>
                <_>
                  66 9 5 6 -1.</_>
                <_>
                  66 11 5 2 3.</_></rects>
              <tilted>0</tilted></feature>
            <threshold>4.3335282243788242e-003</threshold>
            <left_val>0.0622119903564453</left_val>
            <right_val>-0.9333270192146301</right_val></_></_>
        <_>
          <_>
            <feature>
              <rects>
                <_>
                  14 6 13 2 -1.</_>
                <_>
                  14 7 13 1 2.</_></rects>
              <tilted>0</tilted></feature>
            <threshold>2.6115460786968470e-003</threshold>
            <left_val>-0.3120374083518982</left_val>
            <right_val>0.7723358273506165</right_val></_></_></trees>
      <stage_threshold>-0.3174065947532654</stage_threshold>
      <parent>10</parent>
      <next>-1</next></_>
    <_>
      <trees>
        <_>
          <_>
            <feature>
              <rects>
                <_>
                  8 2 15 4 -1.</_>
                <_>
                  8 4 15 2 2.</_></rects>
              <tilted>0</tilted></feature>
            <threshold>8.3413831889629364e-003</threshold>
            <left_val>-0.3502159118652344</left_val>
            <right_val>0.6331434845924377</right_val></_></_>
        <_>
          <_>
            <feature>
              <rects>
                <_>
                  62 0 10 20 -1.</_>
                <_>
                  67 0 5 10 2.</_>
                <_>
                  62 10 5 10 2.</_></rects>
              <tilted>0</tilted></feature>
            <threshold>4.8493677750229836e-003</threshold>
            <left_val>-0.2325935065746307</left_val>
            <right_val>0.3282884955406189</right_val></_></_>
        <_>
          <_>
            <feature>
              <rects>
                <_>
                  4 15 62 2 -1.</_>
                <_>
                  35 15 31 2 2.</_></rects>
              <tilted>0</tilted></feature>
            <threshold>9.9282944574952126e-003</threshold>
            <left_val>0.2893919050693512</left_val>
            <right_val>-0.7094073891639710</right_val></_></_>
        <_>
          <_>
            <feature>
              <rects>
                <_>
                  53 8 4 9 -1.</_>
                <_>
                  53 8 2 9 2.</_></rects>
              <tilted>0</tilted></feature>
            <threshold>-3.5443089436739683e-003</threshold>
            <left_val>0.6065027117729187</left_val>
            <right_val>-0.1383394002914429</right_val></_></_>
        <_>
          <_>
            <feature>
              <rects>
                <_>
                  15 8 4 9 -1.</_>
                <_>
                  17 8 2 9 2.</_></rects>
              <tilted>0</tilted></feature>
            <threshold>6.0853669419884682e-003</threshold>
            <left_val>-0.2748371064662933</left_val>
            <right_val>0.8014584779739380</right_val></_></_>
        <_>
          <_>
            <feature>
              <rects>
                <_>
                  48 9 3 7 -1.</_>
                <_>
                  49 9 1 7 3.</_></rects>
              <tilted>0</tilted></feature>
            <threshold>-4.4021680951118469e-003</threshold>
            <left_val>0.9161214828491211</left_val>
            <right_val>-0.1922968029975891</right_val></_></_>
        <_>
          <_>
            <feature>
              <rects>
                <_>
                  21 10 3 7 -1.</_>
                <_>
                  22 10 1 7 3.</_></rects>
              <tilted>0</tilted></feature>
            <threshold>-4.0692961774766445e-003</threshold>
            <left_val>0.7903261780738831</left_val>
            <right_val>-0.2276037931442261</right_val></_></_>
        <_>
          <_>
            <feature>
              <rects>
                <_>
                  66 1 2 6 -1.</_>
                <_>
                  64 3 2 2 3.</_></rects>
              <tilted>1</tilted></feature>
            <threshold>-3.0911838985048234e-004</threshold>
            <left_val>0.3447386026382446</left_val>
            <right_val>-0.1902911961078644</right_val></_></_>
        <_>
          <_>
            <feature>
              <rects>
                <_>
                  6 0 6 1 -1.</_>
                <_>
                  8 2 2 1 3.</_></rects>
              <tilted>1</tilted></feature>
            <threshold>-7.9358887160196900e-004</threshold>
            <left_val>0.5315554141998291</left_val>
            <right_val>-0.4710999131202698</right_val></_></_></trees>
      <stage_threshold>-0.8006703853607178</stage_threshold>
      <parent>11</parent>
      <next>-1</next></_>
    <_>
      <trees>
        <_>
          <_>
            <feature>
              <rects>
                <_>
                  0 6 66 13 -1.</_>
                <_>
                  22 6 22 13 3.</_></rects>
              <tilted>0</tilted></feature>
            <threshold>6.8665840663015842e-003</threshold>
            <left_val>-0.6035845279693604</left_val>
            <right_val>0.3400667011737824</right_val></_></_>
        <_>
          <_>
            <feature>
              <rects>
                <_>
                  56 5 16 12 -1.</_>
                <_>
                  56 9 16 4 3.</_></rects>
              <tilted>0</tilted></feature>
            <threshold>-0.0242501795291901</threshold>
            <left_val>-0.5706620216369629</left_val>
            <right_val>0.0630539432168007</right_val></_></_>
        <_>
          <_>
            <feature>
              <rects>
                <_>
                  23 4 15 2 -1.</_>
                <_>
                  28 4 5 2 3.</_></rects>
              <tilted>0</tilted></feature>
            <threshold>-2.1135250572115183e-003</threshold>
            <left_val>-0.8614925146102905</left_val>
            <right_val>0.2413094937801361</right_val></_></_>
        <_>
          <_>
            <feature>
              <rects>
                <_>
                  56 5 16 12 -1.</_>
                <_>
                  56 9 16 4 3.</_></rects>
              <tilted>0</tilted></feature>
            <threshold>-0.0498251281678677</threshold>
            <left_val>-0.6436520218849182</left_val>
            <right_val>-0.0168484300374985</right_val></_></_>
        <_>
          <_>
            <feature>
              <rects>
                <_>
                  0 5 16 12 -1.</_>
                <_>
                  0 9 16 4 3.</_></rects>
              <tilted>0</tilted></feature>
            <threshold>-0.0121172098442912</threshold>
            <left_val>-0.7975760102272034</left_val>
            <right_val>0.2661761939525604</right_val></_></_>
        <_>
          <_>
            <feature>
              <rects>
                <_>
                  36 15 4 1 -1.</_>
                <_>
                  37 15 2 1 2.</_></rects>
              <tilted>0</tilted></feature>
            <threshold>2.2528419503942132e-004</threshold>
            <left_val>-0.2015967071056366</left_val>
            <right_val>0.4208368062973023</right_val></_></_>
        <_>
          <_>
            <feature>
              <rects>
                <_>
                  24 21 4 2 -1.</_>
                <_>
                  25 21 2 2 2.</_></rects>
              <tilted>0</tilted></feature>
            <threshold>-5.3230800403980538e-005</threshold>
            <left_val>-0.7551661133766174</left_val>
            <right_val>0.3153724074363709</right_val></_></_>
        <_>
          <_>
            <feature>
              <rects>
                <_>
                  44 1 6 4 -1.</_>
                <_>
                  44 1 3 4 2.</_></rects>
              <tilted>0</tilted></feature>
            <threshold>6.8923342041671276e-004</threshold>
            <left_val>0.1143568009138107</left_val>
            <right_val>-0.6346043944358826</right_val></_></_>
        <_>
          <_>
            <feature>
              <rects>
                <_>
                  3 17 12 2 -1.</_>
                <_>
                  9 17 6 2 2.</_></rects>
              <tilted>0</tilted></feature>
            <threshold>1.4285329962149262e-003</threshold>
            <left_val>-0.5374227762222290</left_val>
            <right_val>0.3981775939464569</right_val></_></_></trees>
      <stage_threshold>-0.5263853073120117</stage_threshold>
      <parent>12</parent>
      <next>-1</next></_>
    <_>
      <trees>
        <_>
          <_>
            <feature>
              <rects>
                <_>
                  1 3 16 15 -1.</_>
                <_>
                  5 3 8 15 2.</_></rects>
              <tilted>0</tilted></feature>
            <threshold>0.0252633094787598</threshold>
            <left_val>-0.3318400084972382</left_val>
            <right_val>0.5935931801795960</right_val></_></_>
        <_>
          <_>
            <feature>
              <rects>
                <_>
                  35 0 34 22 -1.</_>
                <_>
                  52 0 17 11 2.</_>
                <_>
                  35 11 17 11 2.</_></rects>
              <tilted>0</tilted></feature>
            <threshold>0.0664920210838318</threshold>
            <left_val>0.0611257702112198</left_val>
            <right_val>-0.8587536215782166</right_val></_></_>
        <_>
          <_>
            <feature>
              <rects>
                <_>
                  3 0 34 22 -1.</_>
                <_>
                  3 0 17 11 2.</_>
                <_>
                  20 11 17 11 2.</_></rects>
              <tilted>0</tilted></feature>
            <threshold>-0.0260742995887995</threshold>
            <left_val>-0.9364392757415772</left_val>
            <right_val>0.2248502969741821</right_val></_></_>
        <_>
          <_>
            <feature>
              <rects>
                <_>
                  40 18 30 4 -1.</_>
                <_>
                  55 18 15 2 2.</_>
                <_>
                  40 20 15 2 2.</_></rects>
              <tilted>0</tilted></feature>
            <threshold>-1.8503520404919982e-003</threshold>
            <left_val>0.1364362984895706</left_val>
            <right_val>-0.2579914033412933</right_val></_></_>
        <_>
          <_>
            <feature>
              <rects>
                <_>
                  14 20 20 4 -1.</_>
                <_>
                  19 20 10 4 2.</_></rects>
              <tilted>0</tilted></feature>
            <threshold>1.8981529865413904e-003</threshold>
            <left_val>0.2568575143814087</left_val>
            <right_val>-0.8735343813896179</right_val></_></_>
        <_>
          <_>
            <feature>
              <rects>
                <_>
                  31 6 40 5 -1.</_>
                <_>
                  41 6 20 5 2.</_></rects>
              <tilted>0</tilted></feature>
            <threshold>9.5112593844532967e-003</threshold>
            <left_val>-0.1350646018981934</left_val>
            <right_val>0.1725616008043289</right_val></_></_>
        <_>
          <_>
            <feature>
              <rects>
                <_>
                  4 6 44 1 -1.</_>
                <_>
                  15 6 22 1 2.</_></rects>
              <tilted>0</tilted></feature>
            <threshold>2.5710389018058777e-003</threshold>
            <left_val>-0.3136337101459503</left_val>
            <right_val>0.6473876833915710</right_val></_></_>
        <_>
          <_>
            <feature>
              <rects>
                <_>
                  37 12 9 3 -1.</_>
                <_>
                  36 13 9 1 3.</_></rects>
              <tilted>1</tilted></feature>
            <threshold>2.7157159056514502e-003</threshold>
            <left_val>-0.1303824931383133</left_val>
            <right_val>0.3358685076236725</right_val></_></_>
        <_>
          <_>
            <feature>
              <rects>
                <_>
                  29 9 10 8 -1.</_>
                <_>
                  29 9 5 4 2.</_>
                <_>
                  34 13 5 4 2.</_></rects>
              <tilted>0</tilted></feature>
            <threshold>-1.2334160273894668e-003</threshold>
            <left_val>0.5350134968757629</left_val>
            <right_val>-0.4184615910053253</right_val></_></_></trees>
      <stage_threshold>-0.7832481265068054</stage_threshold>
      <parent>13</parent>
      <next>-1</next></_>
    <_>
      <trees>
        <_>
          <_>
            <feature>
              <rects>
                <_>
                  3 13 3 3 -1.</_>
                <_>
                  3 14 3 1 3.</_></rects>
              <tilted>0</tilted></feature>
            <threshold>4.2972090886905789e-004</threshold>
            <left_val>0.1925093978643417</left_val>
            <right_val>-0.8856943845748901</right_val></_></_>
        <_>
          <_>
            <feature>
              <rects>
                <_>
                  15 10 57 6 -1.</_>
                <_>
                  34 12 19 2 9.</_></rects>
              <tilted>0</tilted></feature>
            <threshold>-0.1118573024868965</threshold>
            <left_val>-1.</left_val>
            <right_val>5.9805652126669884e-003</right_val></_></_>
        <_>
          <_>
            <feature>
              <rects>
                <_>
                  0 10 57 6 -1.</_>
                <_>
                  19 12 19 2 9.</_></rects>
              <tilted>0</tilted></feature>
            <threshold>0.0774504095315933</threshold>
            <left_val>0.1904118061065674</left_val>
            <right_val>-0.9473925232887268</right_val></_></_>
        <_>
          <_>
            <feature>
              <rects>
                <_>
                  68 14 2 7 -1.</_>
                <_>
                  68 14 1 7 2.</_></rects>
              <tilted>1</tilted></feature>
            <threshold>2.0976099185645580e-003</threshold>
            <left_val>-0.2709566056728363</left_val>
            <right_val>0.3482061922550201</right_val></_></_>
        <_>
          <_>
            <feature>
              <rects>
                <_>
                  23 1 8 3 -1.</_>
                <_>
                  25 1 4 3 2.</_></rects>
              <tilted>0</tilted></feature>
            <threshold>8.3294452633708715e-004</threshold>
            <left_val>0.1992740035057068</left_val>
            <right_val>-0.9606732130050659</right_val></_></_>
        <_>
          <_>
            <feature>
              <rects>
                <_>
                  59 5 12 2 -1.</_>
                <_>
                  59 5 6 2 2.</_></rects>
              <tilted>0</tilted></feature>
            <threshold>3.2598960679024458e-003</threshold>
            <left_val>-0.0993719771504402</left_val>
            <right_val>0.1285444051027298</right_val></_></_>
        <_>
          <_>
            <feature>
              <rects>
                <_>
                  21 1 14 10 -1.</_>
                <_>
                  21 1 7 5 2.</_>
                <_>
                  28 6 7 5 2.</_></rects>
              <tilted>0</tilted></feature>
            <threshold>2.7409999165683985e-003</threshold>
            <left_val>-0.2909592092037201</left_val>
            <right_val>0.6477972865104675</right_val></_></_>
        <_>
          <_>
            <feature>
              <rects>
                <_>
                  68 11 4 3 -1.</_>
                <_>
                  68 12 4 1 3.</_></rects>
              <tilted>0</tilted></feature>
            <threshold>3.4825250622816384e-004</threshold>
            <left_val>0.1380559951066971</left_val>
            <right_val>-0.6435000896453857</right_val></_></_>
        <_>
          <_>
            <feature>
              <rects>
                <_>
                  32 9 3 8 -1.</_>
                <_>
                  33 9 1 8 3.</_></rects>
              <tilted>0</tilted></feature>
            <threshold>3.1276950612664223e-003</threshold>
            <left_val>-0.3045248985290527</left_val>
            <right_val>0.7519928216934204</right_val></_></_></trees>
      <stage_threshold>-0.4386286139488220</stage_threshold>
      <parent>14</parent>
      <next>-1</next></_>
    <_>
      <trees>
        <_>
          <_>
            <feature>
              <rects>
                <_>
                  1 19 56 4 -1.</_>
                <_>
                  1 19 28 2 2.</_>
                <_>
                  29 21 28 2 2.</_></rects>
              <tilted>0</tilted></feature>
            <threshold>-3.6956369876861572e-003</threshold>
            <left_val>0.5259835720062256</left_val>
            <right_val>-0.4043798148632050</right_val></_></_>
        <_>
          <_>
            <feature>
              <rects>
                <_>
                  57 4 1 3 -1.</_>
                <_>
                  57 5 1 1 3.</_></rects>
              <tilted>0</tilted></feature>
            <threshold>2.6278159930370748e-004</threshold>
            <left_val>-0.1385066062211990</left_val>
            <right_val>0.4133540093898773</right_val></_></_>
        <_>
          <_>
            <feature>
              <rects>
                <_>
                  18 12 3 2 -1.</_>
                <_>
                  19 12 1 2 3.</_></rects>
              <tilted>0</tilted></feature>
            <threshold>8.2065962487831712e-004</threshold>
            <left_val>-0.2308914959430695</left_val>
            <right_val>0.7235217094421387</right_val></_></_>
        <_>
          <_>
            <feature>
              <rects>
                <_>
                  60 14 4 4 -1.</_>
                <_>
                  62 14 2 2 2.</_>
                <_>
                  60 16 2 2 2.</_></rects>
              <tilted>0</tilted></feature>
            <threshold>-1.8462149892002344e-003</threshold>
            <left_val>0.7281978726387024</left_val>
            <right_val>-0.1069450974464417</right_val></_></_>
        <_>
          <_>
            <feature>
              <rects>
                <_>
                  8 14 4 4 -1.</_>
                <_>
                  8 14 2 2 2.</_>
                <_>
                  10 16 2 2 2.</_></rects>
              <tilted>0</tilted></feature>
            <threshold>5.2079692250117660e-004</threshold>
            <left_val>-0.3193095028400421</left_val>
            <right_val>0.5701839923858643</right_val></_></_>
        <_>
          <_>
            <feature>
              <rects>
                <_>
                  55 3 14 4 -1.</_>
                <_>
                  62 3 7 2 2.</_>
                <_>
                  55 5 7 2 2.</_></rects>
              <tilted>0</tilted></feature>
            <threshold>5.1356479525566101e-003</threshold>
            <left_val>0.0722065269947052</left_val>
            <right_val>-0.5910422205924988</right_val></_></_>
        <_>
          <_>
            <feature>
              <rects>
                <_>
                  1 4 16 2 -1.</_>
                <_>
                  1 4 8 1 2.</_>
                <_>
                  9 5 8 1 2.</_></rects>
              <tilted>0</tilted></feature>
            <threshold>1.4370209537446499e-003</threshold>
            <left_val>-0.3226749897003174</left_val>
            <right_val>0.7070438265800476</right_val></_></_>
        <_>
          <_>
            <feature>
              <rects>
                <_>
                  38 16 1 4 -1.</_>
                <_>
                  38 16 1 2 2.</_></rects>
              <tilted>1</tilted></feature>
            <threshold>-8.3676779468078166e-005</threshold>
            <left_val>0.3145466148853302</left_val>
            <right_val>-0.1503743976354599</right_val></_></_>
        <_>
          <_>
            <feature>
              <rects>
                <_>
                  35 0 7 2 -1.</_>
                <_>
                  35 0 7 1 2.</_></rects>
              <tilted>1</tilted></feature>
            <threshold>-1.7545330338180065e-003</threshold>
            <left_val>0.5831294059753418</left_val>
            <right_val>-0.3611595928668976</right_val></_></_></trees>
      <stage_threshold>-0.6076205968856812</stage_threshold>
      <parent>15</parent>
      <next>-1</next></_></stages>
	  </custodetector>
</opencv_storage>
